digraph Tree {
node [shape=box] ;
0 [label="Center Columns <= -0.5\nentropy = 0.831\nsamples = 1000\nvalue = [737, 263]"] ;
1 [label="Two in Row Diagonal <= 1.0\nentropy = 0.999\nsamples = 351\nvalue = [182, 169]"] ;
0 -> 1 [labeldistance=2.5, labelangle=45, headlabel="True"] ;
2 [label="Center Columns <= -1.5\nentropy = 0.998\nsamples = 276\nvalue = [131, 145]"] ;
1 -> 2 ;
3 [label="Bottom Left <= 0.5\nentropy = 0.918\nsamples = 90\nvalue = [30, 60]"] ;
2 -> 3 ;
4 [label="entropy = 0.998\nsamples = 38\nvalue = [18, 20]"] ;
3 -> 4 ;
5 [label="entropy = 0.779\nsamples = 52\nvalue = [12, 40]"] ;
3 -> 5 ;
6 [label="Two in a Row and Free Space <= -0.5\nentropy = 0.995\nsamples = 186\nvalue = [101, 85]"] ;
2 -> 6 ;
7 [label="entropy = 0.913\nsamples = 61\nvalue = [41, 20]"] ;
6 -> 7 ;
8 [label="Two in a Row and Free Space <= 0.5\nentropy = 0.999\nsamples = 125\nvalue = [60, 65]"] ;
6 -> 8 ;
9 [label="Bottom Left <= 0.5\nentropy = 0.999\nsamples = 90\nvalue = [47, 43]"] ;
8 -> 9 ;
10 [label="entropy = 0.996\nsamples = 39\nvalue = [18, 21]"] ;
9 -> 10 ;
11 [label="entropy = 0.986\nsamples = 51\nvalue = [29, 22]"] ;
9 -> 11 ;
12 [label="entropy = 0.952\nsamples = 35\nvalue = [13, 22]"] ;
8 -> 12 ;
13 [label="entropy = 0.904\nsamples = 75\nvalue = [51, 24]"] ;
1 -> 13 ;
14 [label="Center Columns <= 0.5\nentropy = 0.597\nsamples = 649\nvalue = [555, 94]"] ;
0 -> 14 [labeldistance=2.5, labelangle=-45, headlabel="False"] ;
15 [label="Two in Row Diagonal <= -1.0\nentropy = 0.751\nsamples = 293\nvalue = [230, 63]"] ;
14 -> 15 ;
16 [label="entropy = 0.918\nsamples = 66\nvalue = [44, 22]"] ;
15 -> 16 ;
17 [label="Two in a Row and Free Space <= -0.5\nentropy = 0.681\nsamples = 227\nvalue = [186, 41]"] ;
15 -> 17 ;
18 [label="entropy = 0.811\nsamples = 60\nvalue = [45, 15]"] ;
17 -> 18 ;
19 [label="Bottom Left <= 0.5\nentropy = 0.624\nsamples = 167\nvalue = [141, 26]"] ;
17 -> 19 ;
20 [label="entropy = 0.742\nsamples = 57\nvalue = [45, 12]"] ;
19 -> 20 ;
21 [label="Two in a Row and Free Space <= 0.5\nentropy = 0.55\nsamples = 110\nvalue = [96, 14]"] ;
19 -> 21 ;
22 [label="Bottom Left <= 1.5\nentropy = 0.587\nsamples = 78\nvalue = [67, 11]"] ;
21 -> 22 ;
23 [label="entropy = 0.625\nsamples = 32\nvalue = [27, 5]"] ;
22 -> 23 ;
24 [label="entropy = 0.559\nsamples = 46\nvalue = [40, 6]"] ;
22 -> 24 ;
25 [label="entropy = 0.449\nsamples = 32\nvalue = [29, 3]"] ;
21 -> 25 ;
26 [label="Two in a Row and Free Space <= -0.5\nentropy = 0.427\nsamples = 356\nvalue = [325, 31]"] ;
14 -> 26 ;
27 [label="entropy = 0.665\nsamples = 75\nvalue = [62, 13]"] ;
26 -> 27 ;
28 [label="Two in Row Diagonal <= 1.0\nentropy = 0.343\nsamples = 281\nvalue = [263, 18]"] ;
26 -> 28 ;
29 [label="Two in a Row and Free Space <= 0.5\nentropy = 0.262\nsamples = 180\nvalue = [172, 8]"] ;
28 -> 29 ;
30 [label="Bottom Left <= 1.5\nentropy = 0.344\nsamples = 109\nvalue = [102, 7]"] ;
29 -> 30 ;
31 [label="entropy = 0.409\nsamples = 61\nvalue = [56, 5]"] ;
30 -> 31 ;
32 [label="entropy = 0.25\nsamples = 48\nvalue = [46, 2]"] ;
30 -> 32 ;
33 [label="Bottom Left <= 1.5\nentropy = 0.107\nsamples = 71\nvalue = [70, 1]"] ;
29 -> 33 ;
34 [label="entropy = 0.176\nsamples = 38\nvalue = [37, 1]"] ;
33 -> 34 ;
35 [label="entropy = 0.0\nsamples = 33\nvalue = [33, 0]"] ;
33 -> 35 ;
36 [label="Bottom Left <= 1.5\nentropy = 0.466\nsamples = 101\nvalue = [91, 10]"] ;
28 -> 36 ;
37 [label="entropy = 0.57\nsamples = 52\nvalue = [45, 7]"] ;
36 -> 37 ;
38 [label="entropy = 0.332\nsamples = 49\nvalue = [46, 3]"] ;
36 -> 38 ;
}