digraph Tree {
node [shape=box] ;
0 [label="Center Columns <= -0.5\nentropy = 0.831\nsamples = 1000\nvalue = [737, 263]"] ;
1 [label="Two in Row Diagonal <= 1.0\nentropy = 0.999\nsamples = 351\nvalue = [182, 169]"] ;
0 -> 1 [labeldistance=2.5, labelangle=45, headlabel="True"] ;
2 [label="Center Columns <= -1.5\nentropy = 0.998\nsamples = 276\nvalue = [131, 145]"] ;
1 -> 2 ;
3 [label="Two in a Row and Free Space <= -0.5\nentropy = 0.918\nsamples = 90\nvalue = [30, 60]"] ;
2 -> 3 ;
4 [label="entropy = 0.845\nsamples = 55\nvalue = [15, 40]"] ;
3 -> 4 ;
5 [label="entropy = 0.985\nsamples = 35\nvalue = [15, 20]"] ;
3 -> 5 ;
6 [label="Center Piece <= 0.5\nentropy = 0.995\nsamples = 186\nvalue = [101, 85]"] ;
2 -> 6 ;
7 [label="entropy = 0.907\nsamples = 62\nvalue = [42, 20]"] ;
6 -> 7 ;
8 [label="Two in a Row and Free Space <= -0.5\nentropy = 0.998\nsamples = 124\nvalue = [59, 65]"] ;
6 -> 8 ;
9 [label="entropy = 0.954\nsamples = 40\nvalue = [25, 15]"] ;
8 -> 9 ;
10 [label="Center Piece <= 1.5\nentropy = 0.974\nsamples = 84\nvalue = [34, 50]"] ;
8 -> 10 ;
11 [label="entropy = 0.983\nsamples = 33\nvalue = [19, 14]"] ;
10 -> 11 ;
12 [label="entropy = 0.874\nsamples = 51\nvalue = [15, 36]"] ;
10 -> 12 ;
13 [label="Center Piece <= 1.5\nentropy = 0.904\nsamples = 75\nvalue = [51, 24]"] ;
1 -> 13 ;
14 [label="entropy = 0.74\nsamples = 43\nvalue = [34, 9]"] ;
13 -> 14 ;
15 [label="entropy = 0.997\nsamples = 32\nvalue = [17, 15]"] ;
13 -> 15 ;
16 [label="Center Columns <= 0.5\nentropy = 0.597\nsamples = 649\nvalue = [555, 94]"] ;
0 -> 16 [labeldistance=2.5, labelangle=-45, headlabel="False"] ;
17 [label="Center Piece <= 1.5\nentropy = 0.751\nsamples = 293\nvalue = [230, 63]"] ;
16 -> 17 ;
18 [label="Two in Row Diagonal <= -1.0\nentropy = 0.666\nsamples = 213\nvalue = [176, 37]"] ;
17 -> 18 ;
19 [label="entropy = 0.911\nsamples = 49\nvalue = [33, 16]"] ;
18 -> 19 ;
20 [label="Two in a Row and Free Space <= -0.5\nentropy = 0.552\nsamples = 164\nvalue = [143, 21]"] ;
18 -> 20 ;
21 [label="entropy = 0.712\nsamples = 41\nvalue = [33, 8]"] ;
20 -> 21 ;
22 [label="Two in a Row and Free Space <= 0.5\nentropy = 0.487\nsamples = 123\nvalue = [110, 13]"] ;
20 -> 22 ;
23 [label="Center Piece <= 0.5\nentropy = 0.519\nsamples = 86\nvalue = [76, 10]"] ;
22 -> 23 ;
24 [label="entropy = 0.544\nsamples = 56\nvalue = [49, 7]"] ;
23 -> 24 ;
25 [label="entropy = 0.469\nsamples = 30\nvalue = [27, 3]"] ;
23 -> 25 ;
26 [label="entropy = 0.406\nsamples = 37\nvalue = [34, 3]"] ;
22 -> 26 ;
27 [label="entropy = 0.91\nsamples = 80\nvalue = [54, 26]"] ;
17 -> 27 ;
28 [label="Two in a Row and Free Space <= -0.5\nentropy = 0.427\nsamples = 356\nvalue = [325, 31]"] ;
16 -> 28 ;
29 [label="entropy = 0.665\nsamples = 75\nvalue = [62, 13]"] ;
28 -> 29 ;
30 [label="Two in Row Diagonal <= 1.0\nentropy = 0.343\nsamples = 281\nvalue = [263, 18]"] ;
28 -> 30 ;
31 [label="Center Piece <= 0.5\nentropy = 0.262\nsamples = 180\nvalue = [172, 8]"] ;
30 -> 31 ;
32 [label="Two in a Row and Free Space <= 0.5\nentropy = 0.384\nsamples = 80\nvalue = [74, 6]"] ;
31 -> 32 ;
33 [label="entropy = 0.469\nsamples = 50\nvalue = [45, 5]"] ;
32 -> 33 ;
34 [label="entropy = 0.211\nsamples = 30\nvalue = [29, 1]"] ;
32 -> 34 ;
35 [label="Two in a Row and Free Space <= 0.5\nentropy = 0.141\nsamples = 100\nvalue = [98, 2]"] ;
31 -> 35 ;
36 [label="entropy = 0.214\nsamples = 59\nvalue = [57, 2]"] ;
35 -> 36 ;
37 [label="entropy = 0.0\nsamples = 41\nvalue = [41, 0]"] ;
35 -> 37 ;
38 [label="Two in a Row and Free Space <= 0.5\nentropy = 0.466\nsamples = 101\nvalue = [91, 10]"] ;
30 -> 38 ;
39 [label="entropy = 0.439\nsamples = 44\nvalue = [40, 4]"] ;
38 -> 39 ;
40 [label="entropy = 0.485\nsamples = 57\nvalue = [51, 6]"] ;
38 -> 40 ;
}